"Year","1","2","3","4","5","6","7","8","9","10","11","12","13","14","15","16","17","18","19","20","21","22","23","24","25"
1985,39.3336295576967,127.456637944164,201.444567021116,246.409127217881,316.584603882171,379.665201695048,448.544842391645,464.329849376226,535.519640038894,660.916758241873,686.901522521822,741.828419625175,759.02999696378,866.210175354596,863.645984114431,979.237329537274,927.319728628234,1041.38999284915,963.927025423883,1065.80021705142,1151.56170364602,1097.82016720978,1002.29674534737,1210.47771374987,1276.62627433956
1986,-1,-1,-1,-1,495.036666666667,495.036666666667,545.18285206001,674.091852238336,725.736465062652,826.892164779313,804.226674163624,836.718081446271,925.037506585019,898.125398504078,952.849584417083,1101.77786140725,1012.55369194253,1035.35395026106,1008.08184542266,1158.35218203091,1066.72398290954,1096.09236454594,1323.42009792688,1068.25975521594,1076.2735025865
1987,51.38344469597,79.7433830446727,139.730827212806,187.362967857991,263.695029262246,335.326102510327,414.172495706313,487.949105617906,574.624757755462,638.457453139776,613.105633493331,776.046146087514,818.778872459162,896.837742594703,925.863826581343,940.16825439327,1017.3227269133,925.57120487889,996.862730193351,1071.79189760975,1264.86871482705,1180.48640292608,1179.16675741532,1049.45821863556,1209.69945924113
1988,34.124,93.283561580855,201.443966044892,245.02178563336,328.929779856499,402.044933507847,462.522022343761,528.477729696967,589.034267096161,678.498828338817,718.380159331252,742.4242717286,805.892027008565,863.69637835575,902.878327530877,943.668916752194,979.211456332837,1020.24099331257,1078.02888451688,1086.48390218693,1145.51552308418,1167.42284757634,1140.77032611467,1205.64753604207,1439.88812025833
1989,-1,121.67,121.67,121.67,-1,548.72,583.10652631579,583.10652631579,785.830871839581,897.209850746269,802.495247715248,846.26868065967,966.153686770428,1024.00759022119,897.209850746269,1076.38038167939,950.618148148148,1023.99744186047,1176.49,1176.49,-1,1023.99744186047,-1,-1,-1
1990,-1,-1,244.47,317.775703878461,369.164305483789,469.132884414226,540.408230517444,536.702189899094,545.019322618071,615.804873600632,767.745843471908,720.479313522497,730.55192250354,867.058711922044,852.214437941127,1139.50814047644,1028.33195370673,989.953181169901,1051.46753496317,1334.23624308063,1124.72040609137,-1,1124.72040609137,1300.83578191382,-1
1991,-1,-1,185.476788617886,243.223266129032,250.8525,382.209888407113,406.728072682728,493.076044684666,584.608535016253,548.856576271187,737.991583333333,811.373609195402,-1,-1,1001.07487410072,1090.73068627451,879.8635,1756.16,1143.119453125,2106.895,-1,-1,-1,1391.96952380952,-1
1992,38.9689075630252,78.216489626556,147.242285714286,232.890542986425,232.890542986425,352.081662236542,485.907540983606,511.858040582118,557.169045862914,617.081863406801,727.900541868955,530.979517365372,880.976623376623,880.976623376623,1008.38728607436,957.767388591827,1062.12148856334,1012.00693383264,1132.97276190476,1050.22501272232,1332.28235638864,1418.73653333333,1418.73653333333,1132.97276190476,-1
1993,28.6160714285714,124.57375,143.17825,232.557,305.620833333334,357.809285714286,455.029502793296,496.818472513639,544.145713406504,669.63583597189,728.822055335969,832.596658932715,803.408249027238,-1,1272.79518571228,1157.5950867052,1213.63994423274,-1,1157.5950867052,-1,1157.5950867052,-1,1157.5950867052,-1,-1
1994,23.5308155339806,67.1848876404494,149.141551724138,156.25,428.75,658.571293103448,428.75,673.53324127907,687.69107505355,699.558550004312,706.558482956463,744.4654490605,864.003783550224,968.066480409617,1083.60686046512,1046.3610591133,895.200924068768,1402.19625,1091.31622496804,1367.64,-1,1160.3025,1160.3025,-1,-1
1995,-1,175.76,175.76,242.926363636364,340.213137254902,-1,428.300072992701,-1,-1,674.660909090909,-1,900.64671875,1131.04710280374,1400.7152,-1,-1,-1,-1,-1,-1,-1,-1,-1,-1,-1
1996,-1,-1,-1,-1,-1,-1,820.347049180328,690.03,-1,991.875232452142,820.347049180328,820.347049180328,-1,849.815728643216,-1,-1,1129.32310344828,-1,1443.56526315789,1245.01370860927,1245.01370860927,-1,-1,-1,-1
1997,57.5638888888889,-1,-1,-1,-1,377.915454545455,424.774031893852,508.223391250371,594.47614598538,630.223344428229,710.463884251023,769.498072340004,782.423136507599,811.169533807438,924.784201931861,954.257774461551,1081.01806887884,1013.21907890458,946.189009165201,1180.60345191116,1072.0575399537,1131.6606427836,1098.07568835831,1232.06122951125,-1
1998,64.3862131706872,82.0747630681294,97.9840176714585,319.375817154021,365.489657296242,371.45902236284,466.224055369787,493.350215725077,577.083871002264,634.20862133727,650.279738870267,677.385528644642,739.327381546849,772.863813856254,807.4024999731,925.653449974231,967.957377768321,1006.73000780008,1091.14096735434,1032.26166349621,1108.37552411198,1176.93620460163,1352.57329100742,-1,-1
1999,33.75,-1,-1,-1,339.213333333333,339.213333333333,339.213333333333,-1,507.856,-1,690.6375,817.186199261993,690.6375,784.083542234332,886.6072,690.6375,-1,-1,1035.30638436482,1083.37724137931,1083.37724137931,1083.37724137931,-1,1407.64,-1
2000,28.9826025423729,33.75,231.297777777778,360.456215804218,381.926378233005,483.985564850041,429.034392904408,530.985389049829,710.908793453877,922.529987790566,820.482325355251,864.599086021724,885.920527585544,961.519643652383,1125.35319321397,1135.32074997352,1258.22270614677,1138.51673499085,1134.82192625832,1422.07431798443,-1,-1,-1,-1,-1
2001,23.7165142857143,83.8312627986348,140.262729714004,272.352751159196,321.207293233083,493.828853503185,493.828853503185,504.915517241379,504.915517241379,887.621111111111,1113.44253012048,887.621111111111,653.982619047619,-1,1709.955,-1,2053.79,-1,-1,-1,-1,1401.45925925926,1113.44253012048,-1,-1
2002,79.2154474402852,361.078970833006,-1,-1,-1,-1,496.815120962333,548.431635626574,508.656594098727,567.398607585382,548.431635626574,752.212475085855,878.623686868688,752.212475085855,811.170086926821,654.082869005023,982.020793554272,1020.43898457048,1104.28598540146,1236.85112224449,-1,1236.85112224449,-1,1104.28598540146,-1
2003,-1,-1,-1,-1,-1,-1,-1,-1,-1,-1,-1,-1,-1,-1,-1,-1,-1,-1,-1,-1,-1,-1,-1,-1,-1
2004,35.531604440352,-1,243.614305935497,357.840060413403,254.30630466954,460.993578655985,364.095682625619,495.364128883972,615.180764865492,657.990701268718,700.898350158053,600.281282839549,895.372771841149,967.939974506108,898.731729688975,1040.13740400234,950.347977642291,1058.92480261594,1094.30331304782,1081.23511217714,1274.72351224423,1116.13732142857,1225.16795349176,1116.13732142857,-1
2005,50.4368072499129,75.7503714090949,252.327871054378,362.633205043619,460.433190615357,493.928701144153,543.451705234819,589.042560492214,589.072407259794,707.794476702449,692.271401722129,786.056656770234,859.427704465027,799.19804582323,874.096130793084,909.832643249177,1151.06392330384,943.748051590496,1132.43609250399,1110.50958333333,1029.05324918799,1380.07666666667,1380.07666666667,-1,-1
2006,163.253333333333,163.253333333333,321.844736985189,376.789507119576,450.413803866506,510.614012391462,566.891634473119,552.192968373668,655.897908489028,741.417876385884,680.839711712823,830.847148443685,896.982129802151,706.478344081571,1109.07994752016,1132.30558408298,1450.575,1450.575,-1,1089.96083333333,1089.96083333333,-1,-1,-1,-1
2007,54.0754107965592,117.840147059234,166.632270403681,276.423737941344,315.768077049453,420.066091576117,498.205677400397,473.214938327852,628.508769747927,592.943072490647,678.670509054668,887.370952345372,671.348105156694,888.957408434714,921.712864696244,1143.82460763428,1125.474255397,871.092197403481,977.745709180492,1125.474255397,872.386529462208,1005.75772172066,1217.71589208007,-1,1118.52392156863
2008,44.624,104.920795864014,192.92615302673,359.109512856015,431.397719354738,491.125769288415,513.526180061687,590.228965181294,655.692195991738,649.5138222943,661.852453715383,728.473276043083,722.767682566018,771.567370384724,927.511985781369,1009.80834563733,1077.79711995833,1013.74974566139,1099.78597789398,1114.34818948114,974.27285858535,872.136179775281,1115.57627802449,872.40844982116,-1
2009,29.4302074863311,58.9464157527418,243.883375996424,304.45811807049,377.73269779221,481.204304894462,530.7689090672,553.281531416085,593.31790603795,652.963340182946,710.212832518685,706.063146908252,747.389608231239,810.900761359368,851.821331809876,898.523396264141,973.322128478141,974.976058139153,1306.30875224462,973.792100382952,1107.02,1107.02,-1,-1,-1
2010,43.2112585605343,77.925714539924,212.11425216079,313.45008796483,391.268296137519,485.389785786816,508.576910413433,580.662871470913,602.124112871467,648.485004615226,698.949775029157,733.739054953562,770.884627002856,801.492217964062,877.120998962732,836.213986797938,1072.34595847373,1065.27246693124,970.06137616193,1070.28933274197,1102.2677968884,969.451938022678,1102.2677968884,863.331256683993,-1
2011,78.1925322181257,155.831204910596,213.628762715895,330.650596200707,418.470586595352,494.475524242011,531.580229849664,560.024794481862,607.044615259316,638.690814203939,680.911193507354,712.762226000081,773.659051008701,830.716583680826,821.875088103183,959.708135565129,887.777079380811,870.276803791625,1056.05661370794,1423.47093043576,1179.02445172788,-1,1110.49877890211,860.521193545018,-1
2012,65.4164682000241,92.6675892407292,223.83596751396,217.365506543267,342.143028448857,505.520068696337,564.840528282059,603.189771194739,632.356059979522,712.339362361153,711.674840323027,771.757915876664,786.081234685159,803.630921439126,728.169113428693,857.881458041447,820.727463862278,962.630583048547,1074.10127605761,1106.311532219,1362.23005342523,1106.31152923879,1106.311532219,-1,-1
2013,103.05154291373,151.989256883895,156.345281635769,173.556438790644,273.016568495224,332.930648228395,385.736608560898,474.711392036878,508.787838634172,566.659312464401,565.200894372977,631.489083883967,670.803979627793,685.524495169364,702.345858727456,669.375749220586,968.156545556519,1106.61970148368,752.935289855312,1194.46531315322,-1,853.433521578769,1107.11297142474,-1,-1
2014,58.2147546774998,158.450890923399,196.273074432925,265.477216760779,326.069553100144,408.885878477853,465.862498266354,532.574400148639,633.412188616212,683.920388733403,644.735279221643,740.601854270314,715.214510044824,799.052614815375,762.304503563832,657.053592620759,1096.17890004758,1421.25962142105,1096.18413417603,-1,-1,1096.18413417603,-1,-1,-1
2015,74.0586682576263,209.537566023617,203.487682381701,243.211242475362,314.954067292656,433.127016884695,497.791808966245,542.366698376354,634.645659916426,664.965116521053,726.078760927122,787.21992276048,500.672848674323,844.993998711268,845.154666666667,449.138012555689,845.154666666667,845.154666666667,-1,-1,-1,845.154666666667,-1,-1,-1
2016,-1,175.76,241.1176443769,349.268781542989,369.985509219779,433.040574094903,541.606385766303,566.001279194902,737.9396755883,714.159777768979,727.654962190821,823.202997560066,861.170018800797,915.330855068718,755.419589364568,1103.05893749433,879.333737794818,1366.70987862688,1102.9657134607,1103.05893749433,1368.136,-1,-1,-1,-1
2017,39.6737974683544,68.59,69.0764749219107,372.651332898256,363.618463024594,437.764097852496,565.439321665566,606.664913727866,731.551053441028,713.562079218184,754.116153011379,800.556401894878,854.236511417894,1060.48271947855,912.333733316604,1025.03229282032,1294.10657824847,1123.24533947183,1024.96052623485,1124.219816513,1450.99317540145,1123.35651785714,-1,-1,-1
