"Year","1","2","3","4","5","6","7","8","9","10","11","12","13","14"
2012,128.940842209957,614.302527941125,824.293029485359,992.004957423023,1056.18654095353,1077.20366725269,1049.58476652282,1102.49782917762,1093.98063363741,1165.27372364404,1172.2509143589,-1,-1,-1
2013,183.441352820028,582.194458204514,910.519360164204,1024.49529012743,1110.84083496909,1101.26367958568,1140.23568522627,1136.59946989777,1174.03584393649,1171.9546948007,1172.20213348906,-1,-1,-1
2014,129.224105982529,627.444709558257,928.137109535452,1038.56907320262,1085.30594746902,1122.24493740008,1138.17593083829,1145.44630560396,1118.6366896521,-1,1071.92026589048,-1,-1,-1
2015,273.582222082859,641.270148939433,941.465220641899,1071.41508842648,1159.57034775044,1133.64080620174,1054.84563324631,1168.90272740684,1168.96239886913,-1,1171.17409183865,-1,-1,-1
2016,137.133183131795,471.61364528187,921.970543277955,1091.751968934,1125.85919950795,1170.76186270847,1183.99232883881,-1,675.997201478265,-1,-1,-1,-1,-1
2017,209.685367017828,675.890049596796,865.70680747904,1057.68293686697,1089.88184012427,1134.42633378815,1171.53097294655,1190.73942761056,-1,-1,-1,-1,-1,-1
